{"levels":[{"inputs":[0.6972180767377334,0.4405319565671775,0,0,0],"outputs":[1,1,0,0,1,0],"biases":[-0.05885773917662353,-0.2407118276019749,0.03547764097451071,0.08122187618847121,-0.07159506326010465,-0.003924363523335521],"weights":[[0.1917555289759899,-0.1184181576798399,-0.09768935125597768,-0.18942910991126852,0.19693596616208697,0.07852149145793808],[-0.04220995893097228,-0.19708114376843386,-0.021333221905587493,-0.23776494858742353,-0.4580422403800579,-0.312081343656884],[0.3765289552135288,-0.08815861650679738,0.18736421154105398,0.08557649022521745,-0.0951691777471843,-0.14841293400777153],[-0.2876409468411966,0.18876686128861664,-0.16133819762575738,0.3016916506990411,-0.3037561446370459,-0.17164883558626323],[0.3093623679830671,-0.31472657407621557,-0.24353429395493315,-0.034072528270119834,0.36564927513647627,0.3405219836786121]]},{"inputs":[1,1,0,0,1,0],"outputs":[1,1,1,0],"biases":[-0.34397903259434587,-0.17617849965253538,-0.21366473117845453,0.224534005428047],"weights":[[-0.45568534139885775,-0.18836846158736759,-0.19611242581974325,0.1724973100008207],[0.11332190713640664,-0.16124034564081138,0.11327519973539027,-0.2247859687466911],[-0.014214272518135965,-0.10769209524169225,0.22171646618394594,-0.42863492381895196],[0.29511917447358665,-0.0493365258195437,-0.20599936577081282,-0.02858779009757527],[0.15167645476096453,0.1818872765964493,-0.08195313407626195,-0.12443223322779226],[0.3374759845563123,0.09877202926815867,0.00730415710589942,-0.14449107050044296]]}]}